1.1292789 0.7990537 -0.5902203 -0.5619665 0.011830469 -0.60578954 1.1426421 -0.8437295 -0.6749216 0.9746047 0.10432781 -0.27794522 1.060158 -0.77713776 -1.2122667 -0.049643096 -2.5720668 -1.8016114 1.4700121 -3.2956839 -0.20254406 -2.5626645 0.21909347 -1.5736494 -2.9166775 2.1304727 -1.1129415 3.305545 -0.80803597 1.6465021 -0.7899453 1.0124787 -1.3289106 8.889028 -2.060826 2.222819 -0.29238605 2.9488437 10.254196 -4.304088 -3.1317673 5.655677 18.678263 20.973951 17.581055 1.6124514 1.0395465 -1.0256103 1.0376319 9.972338 -14.253243 2.3717105 -7.8927507 3.8796966 -3.9798155 6.5040755 4.7998834 -8.195182 -18.82732 -21.289185 -7.794776 -2.3589144 -2.6091666 -3.3620002
-0.044478286 -0.032312017 -0.0052316124 -0.020876363 0.005435874 -0.041059777 -0.045731794 0.059528224 0.0070941513 0.06425255 0.02858946 -0.08410396 0.109606445 -0.09737167 0.064606674 -0.022408681
3.1144426 0.43271667 -0.2126139 -2.3703003 -1.525249 -0.11083123 -2.0040138 -4.5887523 0.82048535 0.11753753 -4.7838006 -6.0804844 -0.26556343 -0.30664062 5.1610475 -1.8831711 0.62144965 0.9381761 -1.0786314 -1.4820424 0.7368331 -0.06577954 -2.2578073 0.8424486 -0.25857195 -1.7049044 -2.077302 -2.514033 -0.5068683 -0.51980275 3.5816393 -1.9505495 -3.4101448 3.5038352 1.007904 3.9153662 -3.68042 -0.688336 2.7574863 -1.6668408 1.9435961 3.5404122 -3.2924268 3.3617415 1.5560616 1.9682755 3.547529 3.444223 0.51482254 0.7231236 -2.932491 -0.40622973 -0.71340996 2.399835 -1.4315877 0.40860197 -1.797884 -0.20755607 0.6373576 -0.44377032 -0.5308443 -1.5692667 -0.036890168 -1.9759208 -0.46438456 -0.36027846 -0.64513326 0.44666424 0.12982152 0.2752414 -0.6573145 -0.10307069 0.81131303 0.21806772 -0.5740968 0.23628321 0.40603605 -0.932531 0.9576002 0.051463 0.4554575 0.30624184 -1.9428086 -0.35857615 -0.15205495 1.6809747 -0.7566823 0.13102964 -1.8927375 -0.6088323 0.99925953 -0.4372845 0.19936493 -1.1537261 0.37599507 -1.1160237 0.41146216 0.1096388 0.8017607 -1.126183 0.25300375 -1.5016956 -0.83049214 -0.21781868 0.7515016 -0.833671 -0.32958293 -1.5102434 1.2633877 1.3828168 0.8617512 0.34471062 0.19100055 -0.6646369 -1.5176971 0.4335921 -0.66594756 0.885919 -0.6115081 0.3721344 -0.8483108 1.2524291 0.3282407 1.740065 -1.1399618 -0.8795757 -1.2235985 -0.6344483 0.3919915 0.029300757 -2.4389138 -0.7254502 -0.9655128 1.9106823 -0.28675717 0.15841602 -1.096636 1.0157399 0.47259614 0.6321947 -1.151762 -2.1978397 -1.7486279 -2.2822707 0.6772176 -0.49103096 1.5366244 -0.6225176 -0.60688496 -1.9474195 0.6338003 -0.18832469 2.5396395 0.51411 -0.00047144984 0.049532507 -0.5528888 0.95372856 -0.26105785 -0.15909216 -0.39055988 2.573105 -0.522492 0.4767445 0.027832802 -1.0194368 -0.4721039 -0.021807808 -0.2293879 -0.17020436 1.0392557 -0.7789746 -0.7353181 -0.21315895 1.096808 -0.93774897 -0.4187388 2.5430958 1.0564895 0.6287158 -1.0034372 -0.28697282 0.65855604 0.39855802 -0.2591978 -0.87902206 0.16979736 -1.9993569 -0.086708665 1.4367924 3.2421973 1.1095278 0.53932726 0.5977949 -0.17889209 -1.0333638 -1.5326328 -1.8265612 -0.16154246 -0.42333302 2.1246974 0.5952645 -0.07559109 0.6050843 -0.64674246 0.8811714 0.45857117 -0.6924696 -2.198411 2.0132837 0.47316492 2.1318378 -0.42526966 0.986322 2.3999772 -0.7785577 -2.8335912 1.0463204 -1.6460243 1.2128571 1.9599006 1.3059782 2.0748258 3.0898812 -0.56693536 -0.4505922 -1.0028173 0.975771 -0.02948588 1.053543 -0.454681 0.61174643 -1.084661 0.027181834 1.3476897 0.6494294 -0.7621069 -0.8363082 -0.94987637 -0.20973465 -0.11178798 0.09709306 0.6063515 -0.11454562 -1.2776445 -0.12076741 0.86175674 -0.68944234 0.65470535 0.6676295 -1.7279322 1.3438164 0.31908342 0.3127379 0.33521375 0.38783908
0.17376645 -0.6277088 0.24345072 -0.01271976 0.11069527 -0.33491507 0.15996897 0.21611884 0.5168035 0.077663064 0.95827734 0.332282 -0.3373577 0.026014632 -1.3053498 0.2770096
1.2102098 -0.122099854 1.3006209 -0.94031554 0.3289931 -0.8485432 0.4451333 1.7371366 0.5799556 -0.28997922 -0.41622558 1.0569726 0.49945393 -0.666821 0.15254869 0.20455466 -0.013224366 0.45743394 0.06729342 0.33349025 -0.71173894 2.0686796 0.8208089 -0.3670803 -0.33025753 0.046626445 0.17301063 -0.49993178 0.94109684 0.10745387 -0.28929842 0.5651681 -1.2464517 -1.5239644 -0.8459131 0.990207 0.52444845 -0.27161673 -1.197592 -0.62656415 -1.3642329 0.2113233 -0.036173463 -1.5092822 -0.7331665 1.368965 0.9583643 1.8923109 -0.5999601 -0.55951184 -4.171782 2.256685 -0.28361738 0.97690594 0.7653126 -3.679299 1.9789107 0.5205458 0.14859563 -2.6272385 0.8278815 2.4387913 1.3616806 2.9730108 -3.27684 -2.0993142 0.78829384 1.1093065 2.1882544 0.07820873 -1.1569943 -1.4735999 7.0481577 0.04384789 -4.5698047 -0.63558656 3.5301204 2.3451211 4.132779 -0.0720985 0.10220233 2.0645645 0.0743061 -1.0454528 0.25454023 6.5539546 3.4799633 0.7962125 2.7310832 -0.28046748 -0.33282167 1.5445307 1.8925952 -1.5083007 -1.6302891 -1.1360208 -0.16047157 -0.8451874 -1.8131603 1.0224918 -0.2042273 -1.5180205 -0.77282953 -0.79963243 -1.6987232 0.7355628 1.8631299 -1.4677857 -1.9531567 0.8565726 0.5006996 0.600155 0.5222768 0.17867672 -3.1819315 -0.19575493 2.889415 -0.31150422 -0.13638662 -0.6180451 0.71150124 -2.2891197 4.1888466 0.2412087 0.24137834 -0.5607383 0.18519095 -0.3814791 0.61937815 -1.6540344 0.5244234 0.43837756 -0.5497418 -2.001136 -2.8008287 -0.08423137 -6.5389724 1.2391272 0.570803 -0.99227184 -2.2205672 0.95561993 0.852036 0.79635674 -6.5291944 1.1394541 -1.8333553 0.1645204 -1.6928928 0.19641022 0.5242615 0.8149363 -1.6321456 0.6761195 1.4734217 -0.28042203 -1.8873599 -0.6914905 -1.8000734 -0.16237886 -0.84444726 -0.009093599 -2.290768 -0.68300396 1.7111351 -0.2064541 -0.39016327 -0.92476964 0.6897301 -0.770066 1.1759298 0.42504475 0.579468 -0.88015723 -0.18766361 -1.3812668 0.5060363 0.9548238 -1.7642121 0.45719174 -1.2074454 0.0031455806 0.71789503 -1.2847743 -1.5867499 -0.02296645 4.481128 -1.041345 -1.6829987 -0.728886 -0.9412412 0.34786868 -0.22847764 -0.34498325 0.08360877 1.1126053 1.1786404 2.3840399 0.2065526 -0.39117903 1.6725705 -0.30191112 -1.1189349 -1.0050719 1.801078 0.90173084 0.8360348 0.6154929 -0.6394989 0.28413063 -0.83159024 0.971285 -0.958489 -0.94970536 -0.38438016 -0.59796166 -5.119796 0.42385206 1.174295 -0.7483514 -1.3651545 0.08877456 -0.13880529 0.31544536 1.1763433 -0.101275876 0.53509814 0.21924464 0.846776 0.5313685 0.33630028 0.13070372 0.7296143 0.019932026 -0.8549401 -0.14025468 1.9919727 0.85955775 0.39680412 0.49297544 -3.0145867 -1.3175638 -0.9419036 0.28228748 0.2402029 -1.1600437 -1.6604064 -0.57574224 -0.29917592 0.09770879 0.8932175 -1.5156322 -0.5110726 0.5473791 0.48095763 0.42429116
-0.77624214 -0.3041932 -0.15304476 0.05209766 0.055562694 -0.9708379 -0.48826304 0.17910339 -1.0980815 -0.13588285 0.16375363 -0.05180061 -1.3800387 -0.03175291 -0.052928984 -0.01145312
-6.7367644 1.9295386 -1.7966605 -1.4981729 -0.8001084 0.8589037 -0.15927957 0.96386814 -1.103932 -3.5521839 -5.0037427 -0.65710396 -0.6313716 3.7477205 -1.1507529 -1.5266299 -0.9829157 -1.6487728 0.47268504 1.6417502 1.041535 0.6356764 -1.5785724 -0.5054156 1.875842 0.8311465 -0.74811935 4.6420965 5.079062 -0.27802095 1.2742218 3.03768 -1.0659648 -2.1467712 1.8085846 1.9459443 3.975487 -5.2675095 -3.4646761 -2.388498 -0.20556505 2.453814 1.6980197 -0.4319475 -0.8229939 -3.0105326 2.6320698 1.4070151 0.5887974 1.1970236 -0.02683879 -0.24049564 -2.1351094 1.9305404 -0.020386392 1.8346722 -2.0238583 -0.2777527 -0.47638533 -1.771536 -2.3436131 0.022357853 -0.77550006 -1.98009 9.012937 -2.3485394 4.7902236 1.5526721 1.4583749 -0.45815614 -3.358562 1.4306287 1.6630442 -0.17026505 2.8841612 -3.5503693 -1.6412945 0.61171067 -3.157807 3.0070696 2.9651685 -0.6555649 1.245729 2.0463407 -1.1307254 1.2255486 -1.4441315 -0.6847138 6.3330193 0.72755045 1.2415607 5.7980237 4.5697303 -1.4284747 -0.43058702 2.1645224 0.36678356 -1.8663589 0.7643319 2.450466 0.5073153 0.20656846 -2.2786343 -0.17978889 4.2716184 0.35816666 -1.4226185 5.0598774 5.148944 0.15873343 0.5842586 2.8062155 0.39380145 -1.7026926 0.3328813 0.7648848 1.5615383 -2.2875624 -2.210548 -2.2433403 0.48166203 3.422026 2.6898878 -1.7458787 0.037672114 -1.5426288 1.0415316 2.0143838 2.1530771 1.909468 -1.0942864 -3.2303693 -2.2782404 0.72011137 3.8102288 3.5109944 -1.0514297 -1.8489474 -0.2063957 0.14864913 -0.70687383 1.4799527 -2.8449411 -1.9715409 -2.8708951 -0.26179808 -1.2964766 2.1143713 -0.9642908 -0.8386433 -2.4513414 0.4670315 -1.1229725 -0.8471882 -3.9791315 -0.4454944 -0.9884226 2.4576085 0.78340644 0.041139737 -1.4705962 0.423662 -1.5163785 -2.188532 -3.600001 4.584911 2.647438 2.3624372 1.085902 -2.8152447 -4.141101 0.7623004 0.9434242 2.9451036 -2.068807 0.53497404 -0.78909326 -0.7820382 -0.34152249 1.2385466 0.18286158 -1.5997971 0.37961388 -1.0875849 -0.28476775 -0.6427571 -0.5149687 1.8018297 1.2689586 -0.28932953 1.3510084 0.63168657 2.5146303 2.5518453 -0.32341513 -3.2498887 -1.922327 1.4986216 5.2803016 2.96978 -2.2012155 -0.68318975 0.50343734 -0.9092822 -2.362119 0.017415855 -2.4420052 -1.8978249 0.417286 -1.3754889 -0.22925416 -0.85938305 -0.6756327 0.88160765 0.75010234 -1.66015 -1.4175571 0.3733355 -0.8671436 -4.8589745 -3.8667257 0.8929453 -0.6660597 -0.46620443 -0.5510006 2.2407174 -0.2600635 -1.4018302 -0.86407024 -0.8333317 2.4151657 0.101371065 -0.3982676 -1.5259169 -0.49423704 -3.870549 -1.9907043 1.1369448 -1.1392734 -2.380586 0.4418073 1.914933 -0.61770236 -0.85063004 0.41307843 -0.5362554 2.446926 0.69770217 -2.4676344 0.12087262 -0.38570648 -1.8844283 -2.5816066 -0.22301552 -0.6442935 -1.6661721
-0.35327807 -0.53214544 0.009970519 0.8063644 1.0262 1.9193158 -2.0410392 -1.1861018 0.018503495 0.8967064 1.654793 -0.5086296 0.1569001 -0.7977271 0.8493869 0.023033326
-31.344122 8.454603 -2.3574853 10.4701805 0.15233038 22.045692 4.0466175 -24.75195 7.5966077 21.186344 11.145615 34.48302 5.5098863 -14.393374 -25.970213 23.031124 5.0793605 -9.175089 17.114119 3.3096523 -9.964104 5.891546 -27.497211 -5.807091 8.357886 12.314038 24.941807 -10.233846 3.2930558 18.156382 3.8404434 -23.505814 -3.4446032 -3.8705611 -15.420801 13.283159 4.6033096 -18.12549 12.227773 19.099476 26.667994 -8.552495 31.108624 3.2735674 -16.969795 -8.292771 -15.61215 3.4314492 -5.342386 -11.290235 -9.31164 4.799307 -1.2593801 22.42705 -17.383791 -20.314814 7.0648394 -56.345688 17.938753 29.727016 0.41153133 -10.556051 -2.538605 15.835483
3.0751178 -4.5239744 -14.200268 1.6301402
