0.43937263 -1.3385593 -1.2944202 -8.565771 -2.7434967 -2.1336322 -9.496213 -1.9904568 -7.1816754 0.30141392 9.355615 7.795621 -4.020037 7.3073263 6.028106 12.8489275 -1.4557835 2.7480068 3.1543608 -3.999897 -13.779099 14.699309 -5.2810783 -1.320389 2.435681 -1.070869 -5.7320447 -9.825288 -0.39640236 2.1685214 3.4436276 -2.2720046 -6.73123 -2.3293784 -1.8726175 0.35511327 6.028945 -13.983761 -58.41766 -3.1855633 3.3098447 0.3690382 2.9610584 14.472376 0.23687303 -7.352433 4.6556463 5.202765 -9.393546 -0.79796785 -0.67908263 -1.0802901 7.1116333 -3.0601363 1.9026512 -8.417149 10.733426 0.6307266 0.8571868 4.470262 -6.0664506 -1.6125076 8.71361 1.3453276
0.6242443 1.934888 1.9906377 1.1637226 -0.19225237 1.4254824 0.03938131 0.66010785 0.93010056 1.3720478 1.4777949 0.06280933 0.755486 1.2069598 0.64611524 0.2744691
-3.67586 -4.30585 -4.0973716 3.8009913 -4.306048 -3.9278083 -3.6933305 -3.9835882 -2.7969494 5.58749 4.2700043 -4.2588377 -4.118143 -4.321777 -3.7926517 -4.338321 1.6307867 1.3174145 1.0262567 0.15751107 1.5986456 1.1931188 1.4289505 1.28962 0.49811563 1.1556127 0.44564596 1.3336438 0.87644374 1.7095795 1.2763768 1.264955 1.4782797 2.1608894 1.8709745 0.022053165 1.6105398 1.8701528 1.7535743 2.0195303 0.82778776 1.3955165 -0.11300844 1.6527776 2.110584 1.7421049 1.7918197 2.028922 3.3594832 3.053408 3.5534317 -1.2457424 3.3354523 3.811044 4.2231636 3.8087425 1.8689177 0.8913834 -1.3461851 3.6054628 3.588837 3.9561167 3.8101537 3.3983197 -2.1846375 -1.5691116 -2.1008077 1.9771934 -1.50824 -2.0280926 -1.7595462 -1.8667707 -2.1351192 -6.444585 2.540879 -2.0411894 -2.3376918 -2.3215723 -2.105656 -1.6794811 1.0385146 0.30267376 0.3024933 0.1729329 0.56580055 1.1739187 0.5595455 0.49018186 1.0682341 2.5213737 0.21849029 0.77316827 0.9058552 0.91359407 0.5665182 0.767858 0.006354248 -0.15390424 -0.48543686 0.97464436 -0.23707607 -0.5042405 -0.49184263 -0.5279137 2.5124292 -6.9921036 1.4321043 -0.6775108 -0.3287896 -0.57029086 -0.2483288 -0.69334716 -3.6763897 -3.216814 -3.1827283 3.6703842 -3.4108856 -3.6594384 -3.3262389 -3.762838 -1.6307405 5.7748895 3.1112368 -3.4621873 -3.877681 -3.719383 -3.2487862 -3.771071 -3.9873774 -4.597917 -3.7919004 4.593024 -4.317227 -4.531238 -4.218196 -4.4403715 -5.547974 -6.4097013 4.1169825 -3.7786574 -4.0241227 -4.5901194 -4.6139383 -4.2307644 1.2897233 1.5584519 1.1382841 0.48525265 1.2321044 1.6213027 1.4001198 1.6835369 0.20109993 -0.33705822 0.63897145 1.3253144 1.3463274 1.5163567 1.6565768 1.058656 1.917372 2.1225016 2.4253829 -1.0252821 2.3025358 1.6900985 1.7482524 1.8577876 0.2994418 -1.3577787 -0.57161397 2.2875915 1.6298219 2.201042 2.1882536 2.241266 -2.5978613 -2.1748164 -2.2986019 2.3605716 -2.7299397 -2.6894944 -2.5383801 -2.8319135 -1.887291 -5.6243668 2.7372162 -2.2800295 -2.0762603 -2.7694933 -2.2964947 -2.0896058 -1.6203312 -2.3234653 -1.9745083 1.9732059 -1.630483 -2.4803047 -2.3701024 -2.0203838 -0.13646458 4.261724 1.837075 -2.293223 -2.19131 -2.17623 -2.1327257 -2.175286 -2.087907 -2.025552 -2.1040325 1.9522243 -2.018115 -2.1050406 -2.3077989 -2.3381712 -0.74700856 1.8207301 2.1010506 -2.075043 -1.8108026 -1.43778 -1.6261072 -2.1005893 -3.411475 -3.5706542 -3.175397 3.8193362 -3.4726648 -3.6738465 -3.4566054 -3.7632523 -4.3718567 -3.5008733 3.6510437 -3.297685 -3.8845365 -3.734324 -3.4087846 -3.5778286 1.4449942 1.3636765 1.4208493 0.14370148 1.3626288 1.5554639 1.1050884 1.4684831 3.6340437 -1.9916639 0.19325274 1.513038 1.7057223 1.2739284 1.1087703 1.8247478
11.59891 14.586954 19.723497 0.23530817 16.071684 14.557041 21.081839 15.652786 7.445438 0.27602312 0.14322199 20.04931 17.063013 14.451545 12.486773 21.58415
-14.343607 -21.707293 -23.290974 14.109727 -18.57702 -14.607156 -16.712963 -15.92993 -16.302343 21.912752 12.567741 -28.618755 -18.27134 -13.998671 -13.640185 -31.48564
0.0
