-0.124562964 -3.3707697 -5.1204233 -7.088425 -11.076244 -9.726533 -1.1068708 -5.067913 5.8835826 2.3877904 -2.8990445 5.548354 10.190261 3.04741 6.1226025 14.296764 -3.2991085 6.4709816 7.216535 -28.630507 -12.262012 -6.3278384 -2.458186 4.2744975 -13.253794 -13.096178 1.7311668 7.587682 -0.6220853 -1.4082499 6.6123805 -1.4049393 -484.78683 -508.77243 -520.08453 461.02737 485.1591 4.0992565 -261.04718 -485.89624 50.400173 141.42233 -412.2848 540.05646 -536.2338 496.68732 -568.1395 -215.9811 -229.32428 124.220085 329.83148 -677.089 -632.2549 -898.11957 -972.70013 321.84406 -1150.0435 -1163.958 95.358734 389.57565 -435.7043 29.670404 -326.76657 -753.7298
-10.404379 -9.085136 -4.884505 -3.5921729 -2.067682 -3.97064 -1.3330048 -7.30916 -1.8108656 -1.889451 -13.42909 -2.0603437 -3.0499213 -12.095807 -3.313784 -2.810879
-9.05833 1.0157684 -4.093237 -4.242571 -9.654341 1.1723751 -3.808765 3.9797518 -4.0457892 -1.6344649 -2.955766 -4.570084 3.799899 -2.077481 -0.964659 -7.136883 -10.729459 0.27543366 -5.104319 -4.9140825 -10.407401 3.1846209 -4.215881 4.977878 -5.286047 4.2685986 -3.3912904 -2.4510899 6.9753766 4.068798 0.58965695 -7.2850447 -11.758487 1.5269326 -4.5655046 -4.8835006 -12.640419 6.7162623 -4.6167808 7.1729636 -5.2344065 5.1473184 -3.9489553 -1.6587445 9.580844 4.999427 1.4785105 -6.8226056 -7.4895096 -6.7837873 -2.4487097 -8.085723 -1.6908416 -15.902895 -1.764531 -10.281574 -0.7574219 -6.8305883 -0.8139946 -4.5900617 -19.80578 -4.742367 -5.132238 -11.653075 -8.396489 -13.247891 -9.919798 -11.975991 7.2581778 -9.93697 -9.836779 -11.206885 -9.509012 -1.2901616 -8.718144 -8.685567 -5.029139 -9.486518 -11.023435 -3.6020365 -23.907524 -4.8809423 -16.095213 -13.153256 -4.8280277 11.760474 -16.390297 -0.3134046 -17.320585 7.2312803 -14.313578 -2.6755352 10.016478 -20.098688 -8.987941 -17.768353 -16.49909 -3.9884317 -13.638682 -12.547489 -4.2950435 3.3926048 -13.904104 0.3283608 -14.189645 8.319573 -12.642902 -6.7844872 4.686769 -18.202032 -10.189621 -14.594949 -12.036764 2.0603018 -4.4844537 -4.6284614 -10.923182 5.4483876 -4.02517 6.3915358 -4.6040907 4.657735 -2.9640663 -1.2959669 8.336795 5.123404 0.8786462 -6.0377793 1.4424069 -10.100631 -3.2358263 -3.875951 3.1343656 -6.0464444 -3.1612175 -16.315672 -3.3961704 -8.461302 -5.1385007 -9.21425 -23.290546 -5.436362 -8.832824 -1.3000945 0.09240259 -9.828281 -4.289225 -4.16717 1.0736482 -6.9061546 -3.1905787 -15.3987 -3.5840113 -6.8951406 -5.5768843 -8.081308 -22.526564 -4.926229 -8.39412 -2.1091115 -8.802229 -0.07711668 -2.8944054 -3.2124293 -8.46366 3.2343957 -3.2188723 3.3799968 -3.6382782 -2.480699 -2.1486073 -1.6543618 4.489331 3.371071 5.0174254e-05 -4.5915537 11.15704 -0.5087321 7.248419 5.9482994 3.5141935 -19.159948 8.535983 -3.12485 7.702052 -8.327323 9.5624695 7.394168 9.521487 5.409812 1.8222797 11.918487 -11.336022 -4.805366 -8.615955 -8.292427 -7.037216 5.2071104 -8.810826 -3.0872242 -7.9390936 -7.931794 -7.4015875 -8.870129 -1.3783772 -8.16005 -5.2182913 -12.086866 6.1524205 -3.3853858 3.3721526 1.6249584 0.8365254 -15.640627 4.50191 -3.6525104 4.162589 -9.3261795 3.22954 1.5470803 -4.9967966 1.5093423 -1.7497473 5.1381583 -9.245302 -1.0046903 -8.48164 -7.8312364 -14.5759 5.6919227 -7.880557 3.4861765 -8.119407 -3.5262809 -7.764614 -7.0439534 2.887357 -0.80030483 -1.8087149 -11.284836 3.224278 -9.695582 -4.0086713 -1.3138944 -7.377953 -5.7896004 -4.081039 -22.491123 -4.850373 -18.49908 -6.5064383 -8.763227 -17.556215 -1.783184 -4.652308 -3.5602891
-0.6502733 3.8492625 1.8920352 2.5502112 -5.0076795 -0.059432957 2.442942 5.779608 1.5766962 -1.9006668 2.288819 3.630405 0.63593066 3.0650845 4.1999736 1.145806
-5.8490214 -12.285625 -11.298345 -7.177022 -7.709037 -3.817776 1.8746443 -15.334906 -8.558735 -52.952747 -62.849064 2.733803 -6.9767513 -25.266094 -38.58269 -42.32128 3.7966866 8.968726 11.163917 -8.14572 -6.5048523 -12.86165 2.3552494 -4.4980106 -16.336658 -18.397324 -1.0938033 -8.973173 3.0709841 5.7005982 -19.309473 0.42149988 7.894101 5.3410215 0.75913143 19.649899 -11.330428 -4.86967 -1.9712394 -11.91534 -10.812119 -2.6726012 -10.975433 -5.9356494 6.0697017 -6.2490735 -19.002934 -8.740088 10.161174 5.3125243 6.999859 13.811528 -3.4533186 -23.820206 4.122757 -7.4021444 -12.306926 -9.307745 -12.657089 1.1683482 3.4060938 -1.1245131 -29.006193 -9.075342 -11.54853 -28.36045 -79.50036 -2.6647148 -5.1991053 -0.7772519 -54.644238 -7.467845 7.5714445 5.3894234 -1.3094821 17.415953 6.2047205 -78.16795 2.868219 41.71543 -5.2245274 -3.3697615 -10.512548 4.4308887 4.647016 -33.666214 5.1334815 3.624083 -11.242453 -71.5094 3.475093 -0.6242501 -12.477392 5.570787 -7.5610356 0.025003938 7.8037987 4.7734118 2.508994 17.096092 -12.141562 -6.9799333 -0.69800305 -12.674336 -10.77956 -5.563153 -12.788355 -5.4858313 6.1048274 -7.3712854 -19.726252 -8.72047 0.8213635 -1.8494253 -8.746541 18.446022 -14.291635 -15.305172 -12.960839 -10.0954 -12.1176195 3.5182614 -6.836735 -19.772045 5.3789663 -5.0708613 -9.092639 -8.927083 5.416353 3.9474483 -1.9373959 18.241926 -13.038706 -0.49083272 -5.7289033 -10.714937 -9.301143 -2.6218946 -10.272847 -6.899685 5.983637 -8.830285 -17.86759 -6.2262287 -46.500813 2.3589668 -35.37183 4.122565 -3.4723763 0.29669505 2.592603 0.47780058 -1.429695 0.3575243 -1.5046461 -9.990171 -5.8676023 -13.329896 0.7828774 -14.414701 -0.4886744 -0.5004528 -6.11873 9.279043 -18.770737 5.025869 -10.15544 -10.867398 -6.870107 -0.1271692 -10.520328 -7.8218555 -2.9547358 -17.139763 -5.531692 -4.8415666 -10.141273 0.96652466 2.4320116 7.183832 -20.420153 2.7104073 -22.846397 -5.464466 0.34324408 8.530752 -15.057172 -9.4127865 8.268482 -19.266436 -2.2473264 -10.174059 -12.239063 -27.600256 -78.99607 6.8939605 -53.309902 3.5956933 21.01801 -5.845825 -15.390081 1.6885445 -18.174082 -105.52155 -5.574637 -62.791172 1.5217508 -36.541214 -2.3478012 -9.467345 11.058148 2.0902796 -6.704211 -42.04957 -0.40032336 -11.869562 -18.153492 -10.35729 -48.67836 0.58762836 -15.825431 -10.977878 -21.760614 -25.317583 6.6610265 3.076101 9.202518 16.72932 -5.1601796 -28.651905 -1.9621438 -8.2008505 -17.311563 -19.101889 -9.436356 -5.716308 -7.7203465 1.197944 -21.058739 -3.5980191 4.37648 -2.3751216 -5.4822536 -9.793807 -20.046871 -0.8773515 -29.804861 -3.992712 -3.621291 -1.8464212 -12.155983 -6.0080843 -3.2875624 -34.221584 3.5469623 -13.621134
-5.212024 -4.0987773 -6.4497094 -11.574531 2.9532144 0.6763734 -2.2314627 1.0297781 1.4578629 -5.5670824 0.70444626 -0.7009826 -5.2503204 -0.26801822 1.8970473 1.9609001
-8.655212 -3.8804154 -86.90378 -2.4200318 -1.7625407 -6.5634117 -38.709023 14.185853 -3.2560413 -36.29225 6.8861365 -2.5606432 3.46485 -4.480676 -101.021904 0.24310632 -0.34703466 -25.459152 -181.74286 -14.255176 -0.7414911 -7.27599 -75.88676 7.522708 -3.2450073 -15.455231 13.5121565 9.763109 1.8243614 -0.040993005 -8.22102 -1.8544774 -17.45834 -3.8872654 -2.3442483 -1.0898681 -0.09234553 5.457596 -65.01529 -17.702026 0.6049947 -53.30139 2.4695528 -21.261078 -16.145248 5.538659 -57.025608 0.8491483 -7.0089774 3.5295851 19.853483 -42.85122 0.5188351 -98.29928 -8.570991 -31.184052 -0.2739142 0.3518791 -0.6433843 -73.59215 -2.779512 -31.04949 -23.96841 -0.5754236 30.405722 -15.641997 43.834167 -6.7646313 -0.21773997 30.769096 -113.03878 48.93426 -18.853415 -9.413901 -21.583057 24.51314 -10.949014 -6.325384 58.106155 5.1567125 12.634225 -48.248795 1.750862 1.5898653 -58.890594 5.2683887 3.4562283 -30.816654 -1.2523785 -6.1678 -33.174984 9.085221 -30.48256 -24.55011 -31.533102 -2.3483417 -1.0936103 17.119835 7.6932683 -9.071922 3.687271 -6.4393263 -343.93692 17.801758 -2.6673934 0.32751146 15.326937 -8.516773 -39.61115 -32.124126 30.16273 6.742387 22.910255 -43.585606 -61.720745 -4.0928206 -20.111374 10.291573 -36.37411 -24.181879 -14.81597 3.202352 -1.4025509 7.1695075 -11.038879 -17.641167 13.425261 -5.5450664 20.611826 -103.22687 12.946613 -1.7718651 -33.906822 11.447882 -28.442411 -15.556714 0.67183036 -11.02093 -16.742266 -4.902645 0.8408893 -26.466463 16.127151 0.66930234 -34.361507 -16.676638 -58.098515 -2.278915 -131.31192 -2.614831 11.12666 -79.95585 6.8015833 0.26617318 -41.928417 42.29712 33.961082 8.532459 -35.827225 -24.62623 -51.561882 -178.65907 -30.355854 -27.824657 8.969501 1.6367489 -46.00173 30.475134 -10.092458 0.25666305 13.941571 21.342773 -12.125033 -7.3198705 -14.0806 -17.796608 8.352421 -6.105074 -6.395839 -0.19361447 -5.387189 -38.504295 -2.2770727 -75.69992 -26.609127 -26.885065 -13.2140875 -18.335741 -36.720848 -11.400089 -183.8961 1.5864561 -7.193526 -138.43275 -41.04579 -7.471506 -48.41445 -5.801056 -2.377965 20.80285 3.1206083 -7.892584 19.503683 -0.46864626 -7.8567176 -7.8484244 -57.163082 -13.738883 13.8713045 1.9915509 -56.044388 -40.3472 3.7245293 32.5296 -74.14477 28.206459 -17.842657 -4.105382 1.9747623 19.410398 -22.161255 -13.819704 34.59307 -0.015758356 10.436019 -70.15682 -15.036745 -21.001703 -1.8270016 27.322136 -5.446568 -167.24852 1.4686365 1.607209 -4.719365 6.545691 -40.690968 1.9209486 -10.181587 -29.029905 -12.681027 -24.989779 9.26238 -4.358054 4.189976 -25.899609 5.777181 -24.632002 -2.750896 -2.1953642 -1.8008492 -0.9803137 0.9934052 -22.586605 -7.8867927 -1.6104072
-4.89786 -1.2968473 -3.2012053 -0.9564596 -2.708844 -3.2812047 -2.6262553 -5.8727736 -0.8757114 -0.15316695 -3.0364332 -4.868839 -2.286057 -1.3084884 -4.416561 0.31886002
1.5530581 -12.176683 4.5695095 -4.8845854 21.467299 12.681255 2.4982288 4.3560715 14.858945 -12.579633 4.6322684 -5.4914284 6.284005 1.9364278 19.009218 0.3310104 18.03854 6.1107173 -9.1623535 2.4405773 -6.021993 -10.51039 -0.9214319 -3.8179283 -11.256843 20.154518 15.350332 8.025871 24.111591 2.6831095 -3.12316 0.4830772 -14.7061205 5.1119046 -1.6744357 2.4067872 -11.452802 1.6644142 -11.53957 1.1730585 7.446162 11.276936 -12.3754635 4.635582 9.048897 -11.231254 -5.5724373 -4.543351 -10.754352 11.459437 -0.71685773 4.93681 9.783642 11.30574 4.042172 4.1268215 -5.2308445 -19.10437 -4.657225 -7.2015343 11.293534 3.8515491 3.4832375 1.1802531
-1.7721637 -3.7269588 0.2191182 -1.4567847
