-0.2085978 -0.20779912 -9.899045 -0.20867944 -0.20840959 -0.20853366 -0.20887928 -0.20907615 0.28907084 -0.20866323 12.617449 -0.20859276 -10.753868 -1.7070974 -0.20883349 -0.20888092 0.17503792 0.17581284 -22.569693 0.17499445 0.17511152 0.17506617 0.1748916 0.17479077 8.766612 0.17500101 -21.391958 0.17504202 0.3383421 54.65205 0.17492358 0.17489065 0.07987561 0.08015505 -37.889534 0.079953186 0.07965146 0.07977973 0.08019348 0.08042414 -10.853449 0.079937875 22.174623 0.07984457 139.6194 -6.7291393 0.080140986 0.08019658 0.30053046 0.29982343 -8.71565 0.30062714 0.3003243 0.30046174 0.3008737 0.3010929 3.993042 0.30060652 -9.976726 0.3005205 -2.3540623 23.224636 0.30081502 0.30087602
-16.496239 -16.49747 -1.1186533 -16.496151 -16.496466 -16.49631 -16.49596 -16.49579 1.4595927 -16.496181 -0.53756 -16.496244 -0.034140553 -1.4412279 -16.49601 -16.495953
-0.0 -0.0 0.0001418926 0.003502241 -0.0 0.00014400984 0.0005716046 -0.0 0.0004673655 -0.0 0.0001005724 0.03414608 0.00016111339 0.00013255005 0.00013631073 -0.0 -0.0 -0.0 0.0017775557 0.00520893 -0.0 0.00031779878 0.00057125546 -0.0 0.0004679568 -0.0 0.008596822 0.03515402 0.00016152915 0.009108779 0.008873091 0.0037658657 0.0047026738 0.0045424444 0.0046862555 0.004536635 0.0045186286 0.0045707356 13.382964 0.0045376364 0.008642427 0.0045546787 0.00457141 4.1295094 0.0046696044 0.00460839 0.0045650583 0.0045664385 -0.0 -0.0 0.00014160851 -0.0 -0.0 0.00014373453 0.0005716213 -0.0 0.00046734302 -0.0 0.00010026544 0.034062386 0.0001611284 0.00013229194 0.00013603119 -0.0 -0.0 -0.0 0.00014243918 -0.0 -0.0 0.00014454187 0.00057155 -0.0 0.00046745842 -0.0 0.000101166625 0.034327127 0.00016108356 0.00013303742 0.00013685747 -0.0 -0.0 -0.0 0.00014208404 -0.0 -0.0 0.00014419321 0.000571592 -0.0 0.00046739742 -0.0 0.00010078354 0.034207854 0.00016109791 0.0001327181 0.000136502 -0.0 -0.0 -0.0 0.00014091717 -0.0 -0.0 0.00014306056 0.000571664 -0.0 0.00046715952 -0.0 9.952126e-05 0.033851057 0.00016115648 0.00013167872 0.00013533834 -0.0 -0.0 -0.0 0.00014025046 -0.0 -0.0 0.00014241545 0.0005716767 -0.0 0.00046706037 -0.0 9.880805e-05 0.03364576 0.00016118248 0.00013107918 0.0001346736 -0.0 0.00545647 0.005262532 0.005412668 0.005256544 0.0052399486 0.00529323 0.395662 0.005257564 0.010273196 0.0052674636 0.0053030862 7.8671117 0.0054239244 0.005335675 0.0052869692 0.0052884393 -0.0 -0.0 0.00014166492 0.0016910431 -0.0 0.00014378737 0.000571596 -0.0 0.00046734157 -0.0 0.000100324796 0.03408203 0.00016112413 0.0001323413 0.00013608491 -0.0 0.0020869423 0.0020129248 0.0020649477 0.002010816 0.0020055354 0.0020240694 10.256587 0.0020111713 0.0040713516 0.002012585 0.0020297286 2.9728818 0.002075748 0.0020398088 0.002021776 0.002022303 -0.0 -0.0 0.00014191563 -0.0 -0.0 0.00014403398 0.000571598 -0.0 0.0004673917 -0.0 0.00010059625 0.03415062 0.00016110763 0.00013256956 0.00013633599 -0.0 0.0009897164 0.0009562502 0.00098959 0.0009549356 0.000950603 0.00096250337 0.849588 0.0009551631 0.001808048 0.00096041453 0.000961687 1.2043933 0.0009818947 0.00097067095 0.00096125924 0.0009615656 -0.0 -0.0 -0.0 -0.0 -0.0 -0.0 0.8854764 -0.0 -0.0 -0.0 -0.0 0.18801467 -0.0 -0.0 -0.0 -0.0 -0.0 -0.0 0.00014107216 -0.0 -0.0 0.00014321168 0.0005716485 -0.0 0.00046720394 -0.0 9.969042e-05 0.033896875 0.00016115945 0.00013181455 0.00013549117 -0.0 -0.0 -0.0 0.00014091202 -0.0 -0.0 0.0001430559 0.00057165686 -0.0 0.0004671585 -0.0 9.951769e-05 0.033849277 0.00016115858 0.00013167453 0.00013533449 -0.0
-10.915871 -10.918565 -10.918529 -10.918689 -10.918979 -10.918029 -14.851597 -10.918666 -10.588713 -10.919458 -10.918149 -13.815345 -10.916416 -10.917345 -10.918137 -10.91811
7.4031213e-06 6.7535584e-06 5.5957007e-06 6.797786e-06 7.076348e-06 6.6382154e-06 4.199828 6.789478e-06 2.4515706e-05 6.027104e-06 7.243983e-06 0.37217897 7.794104e-06 6.588221e-06 6.6546486e-06 6.6475486e-06
0.0
