-0.35117474 -0.32874662 -23.43711 -17.495245 -29.939474 -0.1072765 18.9842 -0.3387953 20.807041 -0.3299519 -1.9638891 -1.0346289 1.6674548 39.918457 -49.18075 -0.32803512 -0.57683045 -0.5136099 -76.332756 -26.38435 -58.20857 1.8419707 -64.58842 -0.5456443 -23.285534 -0.5178567 -1.9470538 -58.036377 -32.061466 -41.895332 -46.20859 -0.51125234 0.08999757 0.08623123 -65.176445 116.529564 -74.64823 0.018818334 33.06412 0.0883511 -148.14297 0.08653851 0.02013777 4.218255 0.060868464 86.864716 -132.14879 0.08606267 0.21001732 0.20036338 108.328766 -190.87547 186.48413 0.3891886 121.92466 0.20537153 -218.36111 0.20105472 0.35131982 188.9446 -250.65291 76.376076 86.99372 0.19998227
-22.461498 -22.505764 -1.0826651 -3.8503458 -3.6868389 -0.40778592 -0.058256134 -22.48221 -2.6754475 -22.502504 -22.17446 -0.5878347 -0.39162531 -4.3620186 -6.5235596 -22.507334
1.7423981e-05 -0.0 2.980957e-16 1.5039685e-05 -0.0 -0.0 3.842646e-16 -0.0 -0.0 -0.0 0.16609327 8.904263e-05 -0.0 0.107485175 1.3925351e-05 0.06777728 -0.0 -0.0 2.8528684e-16 1.713858e-05 -0.0 -0.0 3.6934226e-16 -0.0 -0.0 -0.0 0.19674177 8.512035e-05 -0.0 0.10032401 1.3393931e-05 0.06404973 -0.0 -0.0 -0.0 0.035803523 4.5799666e-11 -0.0 -0.0 -0.0 0.047170315 0.21956266 -0.0 27.129585 0.15537296 0.12752113 0.010054183 34.930553 8.8309177e-10 3.739379 2.5965416 0.069174595 1.4040684 2.9986358 22.264687 3.2470086 0.0011883307 2.2702475 0.0005545418 0.0055020005 1.3073028 81.40635 85.61288 35.269238 -0.0 7.164558e-05 -0.0 0.010075607 1.152829e-09 -0.0 -0.0 -0.0 -0.0 4.445937e-07 -0.0 14.728146 -0.0 0.004972821 0.013847005 29.706833 -0.0 3.26338 3.102301 9.2123375 3.5279071 1.4751005 1.3522211e-06 2.6191585 3.002296 3.0969615 84.589035 0.0053722262 3.0316777 0.030741958 18.162428 0.07610388 -0.0 -0.0 -0.0 0.073721 -0.0 -0.0 0.7125633 -0.0 0.088468805 0.016759632 0.010338145 28.951687 0.049508754 0.0014380037 0.0057941605 41.20976 3.7105415e-06 -0.0 2.9197337e-16 1.6253018e-05 -0.0 -0.0 3.7716537e-16 -0.0 -0.0 -0.0 0.18316263 8.7175074e-05 -0.0 0.103911676 1.3673057e-05 0.065962724 -0.0 1.5327414 -0.0 0.054367695 1.6862016 3.6398377 2.4459106e-09 1.2838389 0.985524 1.3070959 -0.0 11.616216 1.1208048 27.397457 27.229866 5.5342307 -0.0 -0.0 2.8619872e-16 1.7038868e-05 -0.0 -0.0 3.7040984e-16 -0.0 -0.0 -0.0 0.19512379 8.540129e-05 -0.0 0.10079025 1.3432254e-05 0.06430194 0.0005147653 -0.0 4.215131e-16 3.3112795e-09 -0.0 -0.0 5.649263e-16 -0.0 -0.0 -0.0 -0.0 0.00013493487 -0.0 0.3547258 2.0485297e-05 0.12558213 -0.0 0.003954802 -0.0 0.062169712 -0.0 -0.0 -0.0 -0.0 0.12065433 0.11373126 0.00027925288 16.56275 0.20897734 0.0037239925 0.008133588 28.505058 -0.0 0.9347681 1.0383812 0.08901702 3.8795862 4.4133735 0.016891662 2.5713353 -0.0 0.10231601 0.06901871 7.4417815 3.214499e-09 20.812193 0.009474007 12.435605 3.4446197 -0.0 -0.0 -0.0 3.3872864 -0.0 -0.0 0.5238516 0.0012334868 8.758527e-08 -0.0 0.009201322 1.1666085e-05 0.009131736 0.003115768 70.285065 -0.0 -0.0 -0.0 0.008832712 7.666835e-10 1.8851152e-08 -0.0 -0.0 -0.0 3.3487904e-08 -0.0 18.998322 -0.0 0.003002798 0.018731957 25.524055 -0.0 -0.0 2.8484977e-16 1.7195727e-05 -0.0 -0.0 3.6883584e-16 -0.0 -0.0 -0.0 0.19768454 8.498565e-05 -0.0 0.10005726 1.3375804e-05 0.063916616
-35.89414 -22.963095 -31.582176 16.94674 -23.029306 -24.560205 -34.195015 -23.588268 -21.379948 -21.866428 16.986761 -49.11961 -21.392912 -22.341267 -32.729248 -67.33886
127.78829 0.00020379253 23.104836 -0.0 -0.0 0.00025276022 121.739296 0.0003013973 -0.0 -0.0 0.454332 73.18721 -0.0 38.168724 102.55411 13.7349825
0.0
