1.105108 13.033459 29.332489 -2.793932 -3.6048234 -1.687603 -0.24405053 2.3170679 2.6994073 7.7821164 -13.311732 10.614537 18.636503 -20.925156 4.084664 -8.266638 -3.9263983 10.05984 -23.00258 -9.6498 -70.79447 9.296076 -8.265022 -5.0899844 -64.54738 22.885206 -21.978594 -27.666649 -55.46748 -44.96802 -14.405208 29.109879 -0.3888422 -64.54871 38.284508 21.4266 15.161797 -21.547382 -0.84353447 -2.6307318 -59.994637 11.85154 -119.47783 75.58729 8.808075 -17.504438 -146.71332 -2.9772403 -0.4209646 19.968596 -3.9123218 -1.4901279 6.427695 -19.592276 -4.2835164 -0.5906659 -39.64088 1.8834003 174.01567 192.73085 6.9130197 10.356469 -11.19214 4.0758176
-22.997694 -4.4193263 -4.5324 -20.602911 -1.2891655 -3.228271 -21.88542 -22.842054 -2.94995 -1.6988534 -0.94731206 -0.62949914 -1.7767218 -2.447249 -2.6191282 -1.9886447
1.1616974 -0.6539389 5.1351786 -0.81594324 -0.249547 1.1101172 0.4189629 -2.0361347 1.2741375 -0.50676185 -0.7916968 -3.3747258 1.2732693 0.54638857 -0.7289547 2.6054096 3.1370325 3.6242917 -24.495178 -0.61863536 -53.445976 -5.7844596 36.718746 24.43931 2.6491838 0.49674913 -0.511378 -3.1406596 -13.808103 3.730388 0.037662912 4.6506195 9.164532 -7.6884823 -4.2120066 -9.802213 -23.645372 -5.6212945 59.03722 71.88823 -5.5496464 -5.361874 16.37627 0.042343624 -6.863741 -15.063734 -0.1443328 -106.22957 -0.94504887 -2.3306074 -6.6043577 -8.051323 4.122209 3.9337416 0.6034228 0.5250808 -2.1115825 -9.3063755 -2.1905289 -3.1294608 7.078854 1.673621 0.02807388 1.7781322 2.578574 -10.124097 -13.809422 -25.213795 -4.6451745 -18.311523 5.9398446 16.309456 -9.492755 16.532278 3.362314 -0.3285006 -0.41570112 -3.5544643 -0.07715686 2.5628002 4.6624475 4.254772 -18.36884 -4.528207 -9.823578 5.3063445 -17.452753 6.8969655 1.2299948 -1.6640967 -4.2608743 -3.535216 -1.5299461 -0.6040297 -0.048027746 2.0598228 1.0468649 0.2733842 -1.973355 -1.9255574 0.4579513 1.3760765 -0.99632585 0.9096433 2.2444925 -1.245011 -1.1793054 -2.2416418 0.8190066 0.351731 1.3521535 0.6570334 1.919277 -0.63627875 5.618311 -0.46797147 -1.8727779 0.07041453 1.0867205 -2.346864 2.4311807 -0.7556518 -1.0867041 -3.6673615 1.0313716 0.267638 0.21253473 4.0489635 -9.6112795 2.9188461 20.80671 3.1501296 -21.502003 -1.2283872 -40.12043 6.5685487 9.371973 -37.40315 -5.492169 2.3602595 -7.2447214 -7.1846876 -0.09889081 20.78993 14.198647 -1.4315529 -3.1651864 9.069827 -51.154484 0.79986405 -25.101727 -17.01134 9.391761 4.62997 -0.75084406 -1.0875865 -4.460949 -0.4335138 -0.02797197 0.94474363 0.37073436 -7.1274247 -6.4304914 14.722063 -0.06658397 -52.602913 -0.92197937 1.0146061 0.713587 -0.6866492 7.810786 0.016255612 -0.00786477 -10.485834 -0.0015427629 -8.130874 0.87981474 -15.421656 2.4557374 -0.9262328 -0.7984895 -5.293437 -1.2249427 1.028783 -0.24031785 -2.838557 7.2491913 -0.022013359 -0.05578852 -11.084692 0.005582027 -143.0294 -4.5192804 -7.793343 -9.986204 7.936668 13.907648 -1.6226871 0.927726 27.963932 -3.9573445 7.5865564 5.557771 -0.5384266 0.5025102 -5.4613748 0.02456636 -75.90563 -0.39319023 -6.1023784 16.740946 -107.23255 -3.0061197 -28.566137 2.056954 18.783092 -6.6634865 5.437232 -1.170917 -0.22917406 -0.8094688 -3.3890033 0.030762209 -8.32231 7.1712046 14.414095 -0.6607854 -6.5889664 -2.502247 -22.77104 30.477648 2.0742671 -1.9146111 -3.2469785 -7.697334 -1.0550835 0.73430645 -4.1728306 9.8594595e-05 19.121098 14.709066 -0.47399503 -35.6333 -22.543232 3.5162299 2.0850742 11.706351 3.4280736 -36.21236 3.1996276 -0.812566 -0.30138078 -2.0113468 0.4055556 -0.013995753 -0.3455257
-2.2033374 5.4233975 4.790729 -4.0126715 5.5511365 0.20983751 -0.40669888 -14.647891 2.7895677 -6.9619656 -10.448339 -16.591871 5.2885227 5.6760893 26.597637 6.8326015
0.44053608 18.289013 -4.3059855 -0.68160343 -1.7304575 -9.420985 -0.29128367 10.696723 -1.0895367 -0.72465837 5.3000083 0.009406223 -0.055555146 17.151512 -0.0016966246 -17.530031
0.0
