-27.31684 -8.54325 0.015781265 1.9583533 -22.449112 -6.5942874 23.002975 0.20502034 -6.0954275 4.4610686 -2.470797 0.28859043 8.590298 32.041138 0.05409502 -1.3279511 -1.2000599 2.624614 -14.673134 -0.16729787 -43.628082 6.5050364 -38.504326 -12.726763 13.778088 -5.9396133 9.078449 -1.6263529 13.7181425 16.530195 -41.168053 21.582212 -4.3558774 0.32809952 0.84602 -6.9499865 -26.059933 -1.2150316 51.1819 1.6032137 -5.146914 -168.04027 134.6061 -0.6602663 -10.474989 -14.389644 -6.1236157 24.100866 -9.630494 0.644979 7.3521852 7.623764 -18.991823 1.795043 -29.661411 7.5942388 0.97944045 44.95275 48.74267 0.117645144 5.4887657 8.3676 -4.5000315 -142.20164
-7.25889 -14.731553 -12.353482 -16.018866 -3.770811 -14.449751 -3.3641536 -12.482988 -3.246143 -3.3452868 -3.6941214 -16.35974 -2.7923422 -9.190531 -1.8351266 -5.7148066
-31.254826 -48.24189 -0.26386583 -38.366077 4.886958 0.34667924 -5.950071 -27.672709 -30.77834 -21.897354 -52.870895 -29.862606 -15.532398 -87.627594 -18.733355 -73.13588 -9.471956 -3.3621094 11.96146 -3.0697155 -4.2567487 2.7524068 -1.6315478 -2.50091 -3.5965083 -1.3890373 -2.72072 -2.9926476 -1.2533067 -2.163655 -4.8772907 -10.877312 -3.7147777 0.8458968 -4.5325875 -1.9667906 -10.077865 -2.5743754 -8.313849 -1.7327359 -1.7771426 -5.2578716 -2.72196 1.7165345 4.0791473 -2.0547943 -0.9521329 -2.463451 2.262587 0.781166 -0.20132755 -1.7810363 0.759043 -0.004025617 0.47439218 -1.9701827 -2.4947417 -1.4021227 -2.1607678 -1.3734516 0.89444363 -1.5500473 -8.152641 0.07358305 -6.041356 0.21420819 3.607512 -2.7736924 2.6518502 2.947091 -19.77226 -17.265984 -44.93585 -2.4176404 -44.39848 -15.8229265 -22.887783 -107.260605 -3.4059584 -32.1028 -2.9103303 0.5704688 6.683043 -0.15919256 -2.4943035 2.9207623 -1.2388731 -0.41285518 -1.2749901 -0.62820035 -1.0208489 1.4458013 4.6255527 -0.941585 -5.065852 -1.2616556 -2.3272016 -43.828278 3.6478286 11.1427355 -19.906168 -11.036691 -46.35143 0.74013346 -5.6841254 -1.242096 -21.378729 -1.4657284 -14.865183 1.4715953 -15.724993 20.875885 -3.1870947 0.6755466 -4.8895583 -1.5769099 -9.2811985 -2.700916 -6.8173795 -1.9228997 -2.3749945 -5.2862062 -2.575636 2.2570736 4.592839 -1.9213312 -1.2614422 -1.721095 -15.540061 9.12162 12.72746 13.123983 -5.8716063 5.3439465 -5.1791353 16.31316 -13.120237 -14.020291 -27.216814 17.804321 21.254852 -25.85174 -24.744997 -9.121008 -2.3349113 -13.211868 0.08629247 -5.5658526 16.091831 -11.760142 -55.787 -23.59319 -12.958148 0.6646445 -11.740061 -23.109491 -48.755657 -2.6665897 4.024325 -5.28494 -4.4201775 -4.1159105 1.4540409 -61.810368 0.6512649 1.167872 12.54344 -46.665207 -19.859446 -0.17274931 -11.170294 -48.60993 -44.35774 -7.4550896 1.368079 -1.4896318 -0.38710895 -3.0981967 -0.7939557 -1.0459244 -0.760233 -1.9317815 -1.3605263 -0.51360625 -0.38843167 -2.5637736 -1.3788112 -0.119138725 -1.0127116 -0.8308345 0.3511568 -0.90243906 -5.5639653 7.433421 5.102835 -13.187827 -0.61706185 4.233524 -0.33179352 -12.893124 -2.851245 -5.4195757 -7.494242 -8.589302 3.0805235 -10.216214 -30.071457 3.1602523 -38.832573 -6.985487 -1.9641687 -2.468418 -17.684946 -5.5199537 -59.460793 -5.0735683 -13.327998 -20.354618 -26.703728 -19.03136 -21.813356 -110.892586 -131.33194 1.1981368 -0.72918385 4.7527742 0.40809077 -46.95816 -20.499287 -87.470345 -19.19576 -15.981464 4.444904 -1.5868436 11.81763 -13.316324 -13.209684 3.1203074 -2.233498 -21.287159 -35.629013 -11.126048 -5.4235406 8.310529 19.970854 1.0802543 -8.080541 50.546066 -0.9637008 -4.807832 -5.628612 47.87004 20.49052 -25.967722 -12.976935 8.072678
-2.4865897 -6.0327997 0.1212602 -4.214503 -3.767977 -5.348975 -1.1627713 -6.3905654 -14.084739 -10.490831 -4.8294115 -2.9966972 -2.9914951 -4.1128955 -3.833827 -9.141896
-10.537209 -12.729592 0.6095628 -13.1837845 9.346716 -11.451034 9.204494 -12.314475 -6.3967886 -9.330794 -15.693049 -12.968552 -12.458138 -11.8591 -13.700236 8.42498
0.0
