-5.722284 25.79783 23.660074 3.722636 -21.69092 -8.458754 5.0559916 -1.7174431 5.281243 7.628601 -15.780927 6.9521317 1.2738543 13.106166 15.170682 6.3747888 -50.607197 -9.832193 -22.292501 -6.80734 -6.2172384 3.9324765 -1.0270957 -16.118002 0.7810813 30.735243 -36.816322 -49.621323 -3.3723443 -29.030508 24.083961 10.399557 -114.031364 86.6117 -10.204449 46.194736 -37.71823 128.49022 146.45432 12.580646 -42.05731 -20.848576 -77.55634 20.932383 -0.17332813 36.896248 -43.194126 -165.33684 -88.594185 49.814426 15.846026 -4.8955197 2.0657482 16.519531 16.113594 -27.434761 7.675782 43.964397 129.37439 67.12938 -0.6823529 166.4487 25.599714 -102.159966
-3.8557506 -3.767609 -1.8725652 -19.793934 -4.464745 -5.507428 -3.404088 -21.734243 -20.669088 0.4616313 -0.7600173 -0.4631211 -22.141544 -0.5228032 -6.6371593 -3.252534
-2.0356605 6.173763 26.710953 6.349259 -32.96852 12.59111 3.1971078 -0.73723507 -26.503332 5.3859344 -13.851326 3.1428318 104.717125 29.126886 21.533524 -0.054144084 -12.115971 -9.52124 -43.70172 10.649234 3.6031036 -11.256615 -37.80436 -10.212285 -35.638477 -4.112375 -36.31623 -47.071087 -7.2641053 -29.195137 10.093216 0.02950776 -17.540512 -4.2323008 37.381443 0.9210994 0.3301259 1.7814518 -30.445347 -7.356797 -21.228874 -4.7141204 -17.857124 -29.435087 2.575015 -21.813353 22.426334 -0.011976042 3.8250408 -1.4815816 -1.3028991 0.87866724 4.4341273 -5.4516726 -7.6169434 -0.8508158 -3.1813195 2.2927258 4.8185506 -3.2695692 -1.0649366 -10.159114 -1.2684326 6.516561 -11.994919 -7.149334 -4.4066024 9.004192 11.580321 10.170332 8.167311 -6.604078 -10.36669 -6.7959905 -9.829435 8.772999 -27.572008 -39.958225 10.751943 0.06260534 -3.5528817 -3.6455486 4.7841763 -13.407142 8.936387 24.143198 5.395374 1.6516933 -27.12808 -8.849986 20.366571 23.62073 -50.332542 -4.982657 12.494283 -0.36090222 15.269782 -5.8223715 -24.009102 2.419092 -12.520609 -3.8477948 -8.3379545 -2.4229288 0.10149495 1.2751373 13.918107 -4.870488 -32.98528 -10.70636 1.144638 -0.043005463 0.31873816 1.0170221 -0.059133977 2.9006388 19.340452 6.3444796 1.9338129 1.4166801 11.897351 -0.87432337 -0.12481889 2.924131 -10.094199 6.222264 17.691133 4.9773765 -1.648207 -0.57202667 3.9158092 -1.1108351 0.13143376 -1.7341589 -2.1031685 0.24991064 15.74066 -1.0298274 1.1806871 -6.628025 14.016113 -1.3907325 -2.4458086 -1.4791496 7.890788 2.666706 3.169352 -1.5751709 0.08093494 -10.972212 -5.0927267 2.5542312 10.331042 1.4601758 -0.71857023 -11.220425 1.3160951 1.4592161 -9.060463 0.000635158 -1.3795916 -9.777095 -6.904487 9.299191 -60.88437 1.3130403 7.6464386 -10.299201 -0.48690912 -1.0101076 -0.07682296 2.356115 -2.0290477 -4.4879537 2.4207976 -0.00426083 -7.2570853 -7.060961 -23.101686 2.5468967 6.381075 7.2060695 2.6318269 -8.619825 -18.792728 -2.0292425 0.6723033 4.947644 8.344775 -6.0717654 11.854073 -0.0048891404 0.4806109 0.3941346 -0.040748585 0.5436337 -0.44572964 3.2803044 0.64732045 0.5329877 1.2024326 -0.97227263 -0.28656805 3.5454926 2.2871149 1.5353676 0.41300762 -0.7788608 1.2528951 -12.83757 -92.79252 12.547225 -7.0285892 -4.884558 0.62637115 -7.5599627 -12.437031 0.26442605 -7.873212 -1.050921 2.5303137 4.940264 -7.0678124 0.008692142 -6.2960515 -7.247443 -7.3212104 3.572437 -15.97051 -27.484241 -8.731348 3.4851992 48.814182 -0.6562415 -4.2001452 -19.83837 12.661457 0.37773943 -8.781399 -0.23652285 -4.169578 2.4599054 17.390701 -9.99379 -12.579539 6.5230966 -4.4182014 3.1346252 16.068663 -2.4933069 -12.506631 -11.126799 -12.127356 26.96096 -0.5115332 0.05734972
-5.6128354 4.4869676 0.8339647 -13.217691 -2.0489101 0.4242221 -11.959423 5.300312 -9.271092 19.347504 -0.9415322 0.12694165 -12.742024 -2.514987 -4.0542808 20.806168
12.981719 19.124815 -11.85177 3.3053648 -8.25265 6.425568 14.28515 15.632446 10.47008 -0.6297539 -4.014976 10.715799 6.1274123 6.332346 10.860795 0.0008892356
0.0
