-26.024946 -24.782902 -2.27564 23.512388 18.479502 -5.79594 11.606781 -8.644963 -13.925776 2.1128666 2.0948465 -20.810764 17.638775 -8.698896 19.537653 0.7413804 -28.545475 -13.547018 2.9019678 -19.194315 7.980689 26.27025 -51.91707 -31.345352 -58.22606 10.786237 -15.55081 -31.18904 34.419704 -0.17014004 -13.483977 -4.3044305 -45.5043 -160.66835 -11.0275955 39.891716 380.22348 -40.18013 24.35754 -218.16989 -51.341824 -609.28143 104.12373 -142.0509 -163.19695 351.062 176.92659 -41.895115 -7.1955376 80.20469 -325.45386 -10.7720995 197.812 -170.64317 115.465996 506.28555 93.56628 -60.64735 674.3758 243.31294 -103.391266 -279.54742 166.7129 -714.5247
-3.501123 -4.9336677 -18.356634 -2.533356 -7.184385 -0.10293183 -0.5312929 -4.3493743 -1.2761168 -5.709664 -3.16434 -3.7551408 -9.759921 -4.087297 -3.5133018 -4.4137206
-13.217022 13.901794 -9.4030695 0.49502608 -7.948805 -36.2642 8.683179 -11.2512455 3.5267193 -4.7845793 17.17777 -147.78734 -4.6570373 11.477345 -3.464364 11.005181 -0.11661167 11.067572 -1.2785436 -3.0135672 -15.560793 4.484094 3.436405 -7.5898495 -9.550357 -19.570803 -4.663525 -105.030396 1.1837405 3.6898086 -1.1692048 11.488034 -0.94055605 -2.5636137 -6.7662334 -6.406792 1.2813492 0.24688031 -4.556471 -1.4196562 -8.63818 5.889034 0.34969425 10.306569 -0.9662266 0.9371379 -4.875559 -2.5897293 -9.723584 10.337132 -1.7794622 -31.143555 -9.198235 -1.9513825 3.6038506 -8.424902 -67.981766 -2.254177 -71.63675 2.517889 -16.89883 -65.48856 -41.304802 8.8173685 3.4471617 0.8515035 46.819283 -39.398735 -2.6199205 -5.4270706 18.091616 -1.4090005 -12.263015 -15.746158 -57.215187 -13.881892 47.842552 -29.757126 33.39962 8.316126 1.2509311 -8.020431 -3.9516344 -7.386491 3.9805405 -2.9668138 -7.8255525 2.7965524 1.1560991 3.84033 -2.1717951 0.24880014 -4.1736865 -1.5537049 -2.151527 -5.6946754 -12.043543 5.377901 0.396407 -35.39889 -11.288918 6.4131184 8.556586 -10.830284 -61.148464 -6.7858834 -60.992626 2.1300046 7.161904 -44.00872 -7.230394 6.925727 7.5178227 -1.2782218 10.965452 -2.534475 -12.735728 -0.12713738 -5.3370924 -0.45755404 -13.779621 -23.903605 1.726785 -62.458416 6.762431 -4.9884496 3.6867251 2.3913832 -12.657077 9.194782 3.4543445 4.0837016 -11.423392 -31.252392 6.630388 -11.3504305 3.6429129 -6.8207607 8.8589945 -164.85617 7.585555 7.6428804 1.5893315 7.9851046 -2.2929199 0.8508793 -25.968372 -4.542271 4.247584 8.1695595 -24.567478 4.3447943 -97.1881 8.365007 -29.2336 16.085508 7.384424 -27.751184 -8.46675 2.1525202 3.926839 2.6297593 -1.5991296 -24.045454 -2.9548535 -3.202212 1.9973706 -1.1760552 -8.486754 -21.329166 -37.816677 -6.170157 -14.393266 -2.9065762 2.542382 -0.2378065 -0.22127084 8.841951 10.184407 1.3620244 -16.378248 -10.4093 3.992472 -3.2088637 -1.9160634 -20.05325 8.013435 -119.53244 -1.8303506 4.550991 0.59002435 9.198938 0.87871933 -6.1358805 -105.15306 -5.4017777 -3.2756069 -7.627039 -20.124826 -0.6243565 -42.933323 3.4987395 -23.548328 -17.610819 -36.941032 -21.320194 -29.7285 12.080274 -4.3610435 -7.4301944 -6.4002767 -7.573474 6.184587 -10.820005 -13.079954 0.11805259 4.3662033 5.8452144 -4.6301847 -3.4891582 3.9523482 -3.1068382 -7.9573994 -6.101062 -0.033661053 5.6601467 8.078798 -45.79022 -3.5212321 -4.192244 7.6421356 -7.6207876 -34.110664 -16.31789 -66.36832 -6.690243 2.1525466 -47.309643 13.682162 4.1999483 -3.4370732 -1.5992465 -21.499725 -6.5461836 2.3601718 14.07587 -5.60395 -0.036243357 -19.124441 16.32604 33.698227 11.644705 13.556145 7.9689813 -17.88253 -2.533746
7.634993 -5.8229666 -3.10596 -13.879987 4.690133 -5.237253 -6.423614 5.7147107 -8.098721 2.5454257 -14.063348 -6.838544 -6.5913115 -11.93746 -0.0793969 -6.691616
10.470276 -10.197559 -19.91086 -7.9884853 -5.725647 4.5800605 -7.621891 -21.957367 -3.5971558 -18.251621 -12.154427 2.7172122 8.16463 -2.0034096 4.788052 -1.3284789 -15.914255 5.1977577 40.464283 -4.7988563 6.1622324 0.42514715 -5.0337086 -6.96816 7.821976 -2.7900789 22.239824 -9.18949 -13.662815 -3.149119 -10.710456 -14.366554 2.8859231 -21.994125 -26.556458 -118.30306 -103.28616 4.1367364 -0.6371492 -84.47745 -182.69301 -63.988174 91.20862 58.543446 -40.44694 77.72758 6.936617 46.7786 -19.377802 -99.94111 1.4694636 18.379358 -2.5133839 -45.698654 18.481594 9.501507 -14.981288 -22.844887 -12.396546 5.4328036 -46.571224 -15.635479 -196.38452 0.95026404 8.7389965 0.5584777 -25.598478 -46.759686 7.7917237 -12.109106 23.5259 -0.77954376 0.92225987 -5.078495 -45.17067 -23.954533 9.396262 1.9537284 0.90040326 23.890127 18.516655 6.953522 -48.16678 -12.467212 -216.88489 3.6029894 32.58847 -216.73561 -70.207954 -7.529265 73.84373 28.30485 77.79724 -97.84265 60.04157 -4.123651 -0.96474606 1.7451303 29.400417 14.340152 -35.861588 13.402221 -22.1926 38.935555 0.46299452 4.6569624 48.65397 11.537766 -30.81464 11.843982 -21.197989 -13.610957 3.435332 -13.064073 -12.262876 -29.229326 0.8072637 -16.268438 6.4970574 -2.5843449 -10.150972 -0.55800325 -3.0675783 3.0664651 -0.2994998 9.192566 -1.8813471 -6.1470785 -33.636116 189.2113 403.14447 -57.96391 -31.371225 -48.408474 -99.71306 112.15827 202.98296 -9.881271 133.01833 12.154667 -36.718506 -63.47175 -4.863271 85.471954 -1.925373 4.016117 13.640345 -0.81139964 9.441715 -7.508688 17.487375 -7.0614223 -16.28294 5.970018 -22.439428 12.052301 -1.6482177 -8.443441 -0.6989343 -9.746122 -48.32376 -226.65451 291.18 -109.310295 74.53779 -65.91131 -60.978077 -62.018097 -13.7093935 2.0849752 -43.189156 51.19141 -75.1671 -41.10443 -33.35445 -176.56816 -115.731895 176.28093 -35.95105 258.57587 34.646194 75.22401 -14.954688 -1445.7024 -623.16156 -127.53468 402.82053 -72.53372 -34.848736 123.68915 -112.82735 27.73264 54.50978 -64.37636 -96.24592 -128.6111 -96.79916 0.012205832 -9.664599 -85.95148 -215.66624 10.696745 -23.869383 -38.373302 13.545258 -58.921013 -9.933717 8.403848 1.1051228 82.147064 -10.603733 31.29917 30.402977 15.047561 15.305308 39.97634 -13.526027 21.030655 -0.78749174 43.379333 15.751873 7.9877 -34.73022 3.015356 -4.9462833 -53.283813 -31.680098 8.687853 -190.163 1.6823184 -0.28516412 7.548535 -27.090225 -3.5598166 7.6445966 -13.211754 -29.1021 -8.631001 -1.296239 3.403313 -9.190192 10.420857 4.209882 11.485754 -4.4618998 3.285972 -0.42364842 -3.223033 11.105248 -7.795561 10.6201515 13.153407 0.7728722 -0.38420898 -17.835089 -9.986204
-2.7462006 -0.16954546 3.1494806 4.8413553 -5.29613 1.10182 -1.5379858 2.909837 -1.8875612 3.6818054 3.1061528 -4.187311 -4.298041 -2.6096911 -2.631626 -0.49570578
3.483025 0.75142807 -1.8225498 13.105803 6.324429 0.9340809 -0.36186457 5.042175 -1.7908282 6.556599 -9.035516 -2.4658492 1.8422852 24.809263 -2.4718401 16.630922 0.34035888 6.9755864 66.616905 -29.818134 -2.8136706 -115.88593 -15.577527 52.579113 -62.426815 -17.370348 34.42535 28.116402 71.04514 -47.300056 -2.9138973 -90.02535 -9.320442 -28.078423 46.95688 -18.056358 9.886533 37.50381 -19.022364 -24.682184 14.502557 -34.004677 46.213737 51.25065 6.604713 55.5317 -51.16984 71.908226 70.279816 54.93317 10.0199795 -312.77472 64.36705 50.233093 17.567245 10.863843 14.472791 -30.454393 112.94708 -93.566635 -35.376858 268.4864 -106.43443 -31.02525 -14.16925 -13.87884 13.178243 -13.258924 2.440944 -209.76631 8.281823 -72.42861 3.3948646 -149.26103 32.389824 55.507095 -3.6910896 -29.83001 72.43967 153.13817 -6.938087 1.1183478 -17.019789 -1.3087692 6.4610505 25.76111 4.6681213 -1.1678146 -9.031059 10.47589 0.7993828 -8.25948 10.91038 -8.259147 -5.5903234 24.32043 -0.8348204 -12.680246 0.14111245 5.4677167 -28.145481 5.770252 -2.8429565 -14.381018 0.32826287 -1.3563486 0.7340528 -0.8161698 -4.6537485 -38.12757 -1.157338 -12.00214 -39.27537 27.078362 -10.347175 -20.526854 10.706373 0.85713685 2.6131067 3.021773 -18.254032 2.702706 -15.790901 24.887144 -2.1054363 15.237295 17.397047 33.290054 11.18855 13.601407 -9.919343 -16.481853 2.7902477 81.04842 -74.92218 -6.7215676 -82.182396 14.302057 -12.54646 94.33567 12.825722 -8.405989 17.504217 91.79976 -7.7792563 -2.798225 3.3321161 -0.14933957 9.560675 10.442372 0.22210988 3.0289803 -47.903538 -5.8690953 0.7782675 -2.9678786 -10.225396 19.259922 6.0961595 -0.1493891 34.24866 -16.638746 1.4435743 -107.15386 16.690939 -82.578125 39.182747 -26.29302 123.94344 -31.525724 12.960594 -169.18884 -19.12115 20.279818 33.159107 91.10254 23.229416 2.0385303 6.381719 -1.2611387 12.378144 6.720524 17.677929 1.8416713 -35.40498 -18.07976 12.516037 -23.671867 -23.524483 -0.47890303 15.545442 -10.187455 12.246255 -1.4255904 11.725063 8.202801 -10.088664 -23.576445 -1.4836798 -4.1939616 7.5906863 2.615031 3.516343 -8.925128 -6.2367578 5.5808587 -14.595747 -22.137789 -7.2074947 -3.2111034 6.4253955 -3.3590136 -56.084877 2.4844584 1.9474312 -0.81744444 -8.560702 5.5192647 2.4327307 -8.127237 7.8609104 -16.546354 1.6644422 -15.976848 -22.475105 -74.97199 8.894899 -1.6947219 -7.88489 -54.2809 7.3497295 -91.08369 13.700213 47.325214 9.546922 -23.772305 -2.374109 10.308313 8.383904 37.86958 2.2252538 0.1257987 -15.081466 -0.6826869 -6.2403617 4.8174276 -2.4833806 0.26935872 0.15435362 0.75775284 0.32407224 4.123454 -0.9328558 -15.712423 -4.1900973 -27.072647
-1.7068467 -1.7995489 1.6164274 -13.761395 10.307368 -6.387154 4.622592 -3.9065113 3.71546 -5.580405 8.708802 6.5411797 11.425059 6.9109993 6.878648 -1.812087
-2.354846 1.467768 -4.741719 0.09549016 -0.29925135 2.1605573 -0.24756615 -1.8262525 0.6745524 1.1664218 -1.4257537 0.043964263 1.2541628 1.3241212 0.34612107 -2.5384629 0.0342145 -2.055175 -12.653743 4.0781775 -1.3941364 -0.5648433 1.6877537 -0.18106568 0.25512737 1.6936195 -1.0699081 1.9213064 0.18365405 3.1249254 1.4921329 0.74968827 -0.6226652 -0.059787016 0.27025968 1.7900846 -1.7724551 1.783179 1.0395681 0.36535302 2.134502 -1.3667079 2.095876 0.23654667 2.1213973 -3.1444702 2.7316697 -0.8105269 1.3339471 1.7154877 1.8509623 1.371904 -30.041752 33.21252 11.230102 8.807431 -1.959627 0.07575478 -3.0085013 0.5334761 11.430389 -3.1241055 -3.291736 5.377623
-9.861427 -22.854046 -16.337942 14.2118025
